{"loss": 940.7965698242188, "_timestamp": 1699403097.8405, "_runtime": 30.175472021102905, "_step": 21846, "gradients/lin_skip_layer.weight": {"_type": "histogram", "values": [1.0, 0.0, 0.0, 0.0, 0.0, 0.0, 0.0, 0.0, 1.0, 0.0, 0.0, 0.0, 0.0, 0.0, 1.0, 0.0, 0.0, 0.0, 0.0, 0.0, 0.0, 0.0, 1.0, 0.0, 0.0, 1.0, 1.0, 1.0, 0.0, 0.0, 0.0, 1.0, 0.0, 0.0, 0.0, 0.0, 1.0, 1.0, 1.0, 0.0, 0.0, 1.0, 0.0, 1.0, 1.0, 0.0, 0.0, 0.0, 0.0, 0.0, 0.0, 0.0, 1.0, 1.0, 0.0, 0.0, 0.0, 0.0, 0.0, 0.0, 0.0, 0.0, 0.0, 2.0], "bins": [-12.195696830749512, -12.093070030212402, -11.990442276000977, -11.887815475463867, -11.785188674926758, -11.682561874389648, -11.579934120178223, -11.477307319641113, -11.374680519104004, -11.272052764892578, -11.169425964355469, -11.06679916381836, -10.96417236328125, -10.861544609069824, -10.758917808532715, -10.656291007995605, -10.55366325378418, -10.45103645324707, -10.348409652709961, -10.245782852172852, -10.143155097961426, -10.040528297424316, -9.937901496887207, -9.835273742675781, -9.732646942138672, -9.630020141601562, -9.527392387390137, -9.424765586853027, -9.322138786315918, -9.219511985778809, -9.116884231567383, -9.014257431030273, -8.911630630493164, -8.809002876281738, -8.706376075744629, -8.60374927520752, -8.50112247467041, -8.398494720458984, -8.295867919921875, -8.193241119384766, -8.09061336517334, -7.9879865646362305, -7.885359764099121, -7.7827324867248535, -7.680105686187744, -7.577478408813477, -7.474851131439209, -7.3722243309021, -7.269597053527832, -7.166970252990723, -7.064342975616455, -6.961716175079346, -6.859088897705078, -6.7564616203308105, -6.653834819793701, -6.551207542419434, -6.448580741882324, -6.345953464508057, -6.243326187133789, -6.14069938659668, -6.038072109222412, -5.935445308685303, -5.832818031311035, -5.730191230773926, -5.627563953399658]}, "gradients/output_layer.weight": {"_type": "histogram", "values": [2.0, 0.0, 0.0, 0.0, 0.0, 0.0, 0.0, 0.0, 0.0, 0.0, 0.0, 0.0, 1.0, 1.0, 0.0, 0.0, 1.0, 0.0, 0.0, 0.0, 0.0, 1.0, 0.0, 0.0, 0.0, 0.0, 0.0, 0.0, 1.0, 0.0, 0.0, 0.0, 0.0, 1.0, 0.0, 0.0, 0.0, 1.0, 0.0, 0.0, 1.0, 1.0, 1.0, 2.0, 0.0, 0.0, 0.0, 0.0, 1.0, 0.0, 0.0, 0.0, 0.0, 0.0, 0.0, 0.0, 1.0, 1.0, 1.0, 0.0, 0.0, 1.0, 0.0, 1.0], "bins": [-41.36674499511719, -41.08013916015625, -40.79353332519531, -40.50693130493164, -40.2203254699707, -39.933719635009766, -39.64711380004883, -39.36050796508789, -39.07390594482422, -38.78730010986328, -38.500694274902344, -38.214088439941406, -37.92748260498047, -37.64087677001953, -37.35427474975586, -37.06766891479492, -36.781063079833984, -36.49445724487305, -36.20785140991211, -35.92124938964844, -35.6346435546875, -35.34803771972656, -35.061431884765625, -34.77482604980469, -34.48822021484375, -34.20161819458008, -33.91501235961914, -33.6284065246582, -33.341800689697266, -33.05519485473633, -32.768592834472656, -32.48198699951172, -32.19538116455078, -31.908775329589844, -31.62217140197754, -31.3355655670166, -31.048961639404297, -30.76235580444336, -30.475749969482422, -30.189146041870117, -29.90254020690918, -29.615934371948242, -29.329330444335938, -29.042724609375, -28.756118774414062, -28.469514846801758, -28.18290901184082, -27.896305084228516, -27.609699249267578, -27.32309341430664, -27.036489486694336, -26.7498836517334, -26.463279724121094, -26.176673889160156, -25.89006805419922, -25.603464126586914, -25.316858291625977, -25.03025245666504, -24.743648529052734, -24.457042694091797, -24.17043685913086, -23.883832931518555, -23.597227096557617, -23.310623168945312, -23.024017333984375]}, "gradients/layers.1.ts": {"_type": "histogram", "values": [1.0, 0.0, 0.0, 0.0, 0.0, 0.0, 0.0, 0.0, 0.0, 1.0, 1.0, 0.0, 0.0, 1.0, 0.0, 0.0, 1.0, 0.0, 0.0, 0.0, 0.0, 0.0, 0.0, 0.0, 0.0, 0.0, 0.0, 0.0, 0.0, 0.0, 0.0, 0.0, 1.0, 1.0, 0.0, 0.0, 0.0, 0.0, 0.0, 1.0, 2.0, 0.0, 1.0, 1.0, 0.0, 1.0, 0.0, 0.0, 0.0, 0.0, 0.0, 0.0, 0.0, 1.0, 0.0, 0.0, 0.0, 0.0, 2.0, 1.0, 1.0, 0.0, 0.0, 2.0], "bins": [-25.91653060913086, -25.797195434570312, -25.677860260009766, -25.55852508544922, -25.439189910888672, -25.319854736328125, -25.200519561767578, -25.08118438720703, -24.961849212646484, -24.842514038085938, -24.72317886352539, -24.603843688964844, -24.484508514404297, -24.36517333984375, -24.245838165283203, -24.126502990722656, -24.00716781616211, -23.887832641601562, -23.768497467041016, -23.64916229248047, -23.529827117919922, -23.410491943359375, -23.291156768798828, -23.17182159423828, -23.052486419677734, -22.933151245117188, -22.81381607055664, -22.694480895996094, -22.575145721435547, -22.455810546875, -22.336475372314453, -22.217140197753906, -22.09780502319336, -21.978469848632812, -21.859134674072266, -21.73979949951172, -21.620464324951172, -21.501129150390625, -21.381793975830078, -21.26245880126953, -21.143123626708984, -21.023788452148438, -20.90445327758789, -20.785118103027344, -20.665782928466797, -20.54644775390625, -20.427112579345703, -20.307777404785156, -20.18844223022461, -20.069107055664062, -19.949771881103516, -19.83043670654297, -19.711101531982422, -19.591766357421875, -19.472431182861328, -19.35309600830078, -19.233760833740234, -19.114425659179688, -18.99509048461914, -18.875755310058594, -18.756420135498047, -18.6370849609375, -18.517749786376953, -18.398414611816406, -18.27907943725586]}, "gradients/layers.1.bias": {"_type": "histogram", "values": [0.0, 0.0, 0.0, 0.0, 0.0, 0.0, 0.0, 0.0, 0.0, 0.0, 0.0, 0.0, 0.0, 0.0, 0.0, 0.0, 0.0, 0.0, 0.0, 0.0, 0.0, 0.0, 0.0, 0.0, 0.0, 0.0, 0.0, 0.0, 0.0, 0.0, 0.0, 0.0, 20.0, 0.0, 0.0, 0.0, 0.0, 0.0, 0.0, 0.0, 0.0, 0.0, 0.0, 0.0, 0.0, 0.0, 0.0, 0.0, 0.0, 0.0, 0.0, 0.0, 0.0, 0.0, 0.0, 0.0, 0.0, 0.0, 0.0, 0.0, 0.0, 0.0, 0.0, 0.0], "bins": [0.0, 0.0, 0.0, 0.0, 0.0, 0.0, 0.0, 0.0, 0.0, 0.0, 0.0, 0.0, 0.0, 0.0, 0.0, 0.0, 0.0, 0.0, 0.0, 0.0, 0.0, 0.0, 0.0, 0.0, 0.0, 0.0, 0.0, 0.0, 0.0, 0.0, 0.0, 0.0, 0.0, 0.0, 0.0, 0.0, 0.0, 0.0, 0.0, 0.0, 0.0, 0.0, 0.0, 0.0, 0.0, 0.0, 0.0, 0.0, 0.0, 0.0, 0.0, 0.0, 0.0, 0.0, 0.0, 0.0, 0.0, 0.0, 0.0, 0.0, 0.0, 0.0, 0.0, 0.0, 0.0]}, "gradients/layers.1.weight": {"_type": "histogram", "values": [0.0, 0.0, 0.0, 0.0, 0.0, 0.0, 0.0, 0.0, 0.0, 0.0, 0.0, 0.0, 0.0, 0.0, 0.0, 0.0, 0.0, 0.0, 0.0, 0.0, 0.0, 0.0, 0.0, 0.0, 0.0, 0.0, 0.0, 0.0, 0.0, 0.0, 0.0, 0.0, 360.0, 0.0, 0.0, 0.0, 0.0, 0.0, 0.0, 0.0, 0.0, 0.0, 0.0, 0.0, 0.0, 0.0, 0.0, 0.0, 0.0, 0.0, 0.0, 0.0, 0.0, 0.0, 0.0, 0.0, 0.0, 0.0, 0.0, 0.0, 0.0, 0.0, 0.0, 0.0], "bins": [0.0, 0.0, 0.0, 0.0, 0.0, 0.0, 0.0, 0.0, 0.0, 0.0, 0.0, 0.0, 0.0, 0.0, 0.0, 0.0, 0.0, 0.0, 0.0, 0.0, 0.0, 0.0, 0.0, 0.0, 0.0, 0.0, 0.0, 0.0, 0.0, 0.0, 0.0, 0.0, 0.0, 0.0, 0.0, 0.0, 0.0, 0.0, 0.0, 0.0, 0.0, 0.0, 0.0, 0.0, 0.0, 0.0, 0.0, 0.0, 0.0, 0.0, 0.0, 0.0, 0.0, 0.0, 0.0, 0.0, 0.0, 0.0, 0.0, 0.0, 0.0, 0.0, 0.0, 0.0, 0.0]}, "val_loss": 101.95951080322266, "test_loss": 1618.275146484375, "_wandb": {"runtime": 29}}